digraph Tree {
node [shape=box, style="filled, rounded", color="black", fontname="helvetica"] ;
edge [fontname="helvetica"] ;
0 [label="petal length (cm) <= 2.45\ngini = 0.66\nsamples = 98\nvalue = [53, 57, 40]\nclass = versicolor", fillcolor="#f7fefa"] ;
1 [label="gini = 0.0\nsamples = 35\nvalue = [53, 0, 0]\nclass = setosa", fillcolor="#e58139"] ;
0 -> 1 [labeldistance=2.5, labelangle=45, headlabel="True"] ;
2 [label="sepal length (cm) <= 6.2\ngini = 0.48\nsamples = 63\nvalue = [0, 57, 40]\nclass = versicolor", fillcolor="#c4f7d9"] ;
0 -> 2 [labeldistance=2.5, labelangle=-45, headlabel="False"] ;
3 [label="sepal width (cm) <= 2.95\ngini = 0.22\nsamples = 30\nvalue = [0, 41, 6]\nclass = versicolor", fillcolor="#56e993"] ;
2 -> 3 ;
4 [label="petal length (cm) <= 4.7\ngini = 0.06\nsamples = 21\nvalue = [0, 34, 1]\nclass = versicolor", fillcolor="#3fe685"] ;
3 -> 4 ;
5 [label="gini = 0.0\nsamples = 19\nvalue = [0, 33, 0]\nclass = versicolor", fillcolor="#39e581"] ;
4 -> 5 ;
6 [label="petal width (cm) <= 1.8\ngini = 0.5\nsamples = 2\nvalue = [0, 1, 1]\nclass = versicolor", fillcolor="#ffffff"] ;
4 -> 6 ;
7 [label="gini = 0.0\nsamples = 1\nvalue = [0, 1, 0]\nclass = versicolor", fillcolor="#39e581"] ;
6 -> 7 ;
8 [label="gini = 0.0\nsamples = 1\nvalue = [0, 0, 1]\nclass = virginica", fillcolor="#8139e5"] ;
6 -> 8 ;
9 [label="petal length (cm) <= 4.7\ngini = 0.49\nsamples = 9\nvalue = [0, 7, 5]\nclass = versicolor", fillcolor="#c6f8db"] ;
3 -> 9 ;
10 [label="gini = 0.0\nsamples = 5\nvalue = [0, 6, 0]\nclass = versicolor", fillcolor="#39e581"] ;
9 -> 10 ;
11 [label="sepal length (cm) <= 5.95\ngini = 0.28\nsamples = 4\nvalue = [0, 1, 5]\nclass = virginica", fillcolor="#9a61ea"] ;
9 -> 11 ;
12 [label="sepal width (cm) <= 3.1\ngini = 0.5\nsamples = 2\nvalue = [0, 1, 1]\nclass = versicolor", fillcolor="#ffffff"] ;
11 -> 12 ;
13 [label="gini = 0.0\nsamples = 1\nvalue = [0, 0, 1]\nclass = virginica", fillcolor="#8139e5"] ;
12 -> 13 ;
14 [label="gini = 0.0\nsamples = 1\nvalue = [0, 1, 0]\nclass = versicolor", fillcolor="#39e581"] ;
12 -> 14 ;
15 [label="gini = 0.0\nsamples = 2\nvalue = [0, 0, 4]\nclass = virginica", fillcolor="#8139e5"] ;
11 -> 15 ;
16 [label="petal width (cm) <= 1.75\ngini = 0.44\nsamples = 33\nvalue = [0, 16, 34]\nclass = virginica", fillcolor="#bc96f1"] ;
2 -> 16 ;
17 [label="petal length (cm) <= 5.05\ngini = 0.2\nsamples = 11\nvalue = [0, 16, 2]\nclass = versicolor", fillcolor="#52e891"] ;
16 -> 17 ;
18 [label="gini = 0.0\nsamples = 9\nvalue = [0, 16, 0]\nclass = versicolor", fillcolor="#39e581"] ;
17 -> 18 ;
19 [label="gini = 0.0\nsamples = 2\nvalue = [0, 0, 2]\nclass = virginica", fillcolor="#8139e5"] ;
17 -> 19 ;
20 [label="gini = 0.0\nsamples = 22\nvalue = [0, 0, 32]\nclass = virginica", fillcolor="#8139e5"] ;
16 -> 20 ;
}